{"mu": [0.5785914063453674, 0.025109510868787766, 0.0041600177064538, 3.198519229888916], "sd": [0.3913171589374542, 1.1425201892852783, 0.685545027256012, 0.7103271484375], "W1": [[0.19153307378292084, -0.040005385875701904, 0.8208563923835754, 0.36365583539009094, 0.8984514474868774, 0.0019710848573595285, -0.6147753000259399, 0.025787418708205223, -0.2804982364177704, 0.06145978346467018, 0.734754741191864, -0.27514639496803284, 0.16730214655399323, -1.0531988143920898, -0.7313262224197388, 0.3450496792793274], [-1.0789316892623901, 0.4090675711631775, 0.42083966732025146, -1.154007077217102, 0.3592427670955658, 0.29798582196235657, 0.32737040519714355, -3.513371706008911, -1.4099699258804321, 0.328963965177536, -1.2466440200805664, -0.3557688593864441, 0.1727077215909958, 1.8963685035705566, -0.17496927082538605, 0.024867231026291847], [-0.9281248450279236, -0.29652875661849976, -1.7260770797729492, 0.6023163795471191, 0.2649531066417694, -0.2570900619029999, -0.11208508908748627, -0.08736857026815414, 0.2708146274089813, -0.018187712877988815, -0.2974621057510376, 0.2677576541900635, 0.038804445415735245, 0.04779018461704254, -0.2772074341773987, -0.4416825473308563], [-0.0628284364938736, 0.03549361974000931, -0.32017576694488525, 0.35480332374572754, -0.951478123664856, 0.10357638448476791, -0.5287766456604004, -0.083424411714077, 0.10721217840909958, -0.09580418467521667, -0.49562743306159973, 0.13404712080955505, 0.47027114033699036, 0.03670232370495796, -0.006032430566847324, -0.4009155333042145]], "b1": [-0.32764479517936707, -0.1091960147023201, 0.4030837118625641, -2.072103261947632, 0.05193081870675087, 0.2707153260707855, -1.2454396486282349, -0.04933609440922737, -0.058715738356113434, 0.14796864986419678, 0.7023679614067078, 0.4201466739177704, 0.2320859730243683, -0.919884979724884, 1.3543201684951782, -0.6065812706947327], "W2": [[-1.4289261102676392, 1.3259366750717163], [0.13201379776000977, 0.13215868175029755], [0.8781472444534302, -0.8828002214431763], [0.6329789161682129, -1.002464771270752], [0.48425906896591187, -0.209823876619339], [0.043704770505428314, 0.08154192566871643], [-1.5697827339172363, 1.4339234828948975], [2.099785566329956, -2.266653537750244], [-1.4024677276611328, 1.2751628160476685], [-0.04812861979007721, -0.10279912501573563], [-1.9225683212280273, 1.8327209949493408], [0.009633309207856655, -0.0746859759092331], [-0.04115505516529083, 0.2031119465827942], [0.619116485118866, -0.4975413978099823], [-0.7928187251091003, 0.4746592938899994], [0.7466577291488647, -0.7570353746414185]], "b2": [-0.15332721173763275, 0.22746621072292328], "temperature": 0.800000011920929}